-165509.140702269,-165509.138120136,-165509.135538085,-165509.132956116,-165509.130374229,-165509.127792424,-165509.125210702,-165509.122629061,-165509.120047502,-165509.117466025,-165509.114884629,-165509.112303316,-165509.109722085,-165509.107140936,-165509.104559869,-165509.101978884,-165509.099397981,-165509.096817159,-165509.09423642,-165509.091655763,-165509.089075187,-165509.086494694,-165509.083914282,-165509.081333953,-165509.078753705,-165509.07617354,-165509.073593456,-165509.071013455,-165509.068433535,-165509.065853697,-165509.063273941,-165509.060694268,-165509.058114676,-90110.9921891728,-165509.052955738,-90110.9862806939,-165509.047797128,-165509.045217946,-165509.042638846,-165509.040059827,-165509.037480891,-165509.034902037,-165509.032323265,-165509.029744574,-165509.027165966,-165509.024587439,-165509.022008995,-165509.019430632,-165509.016852351,-165509.014274153,101513.751566528,101513.75115448,101513.750742324,101513.750330059,101513.749917686,101513.749505204,101513.749092613,101513.748679914,101513.748267107,101513.747854191,101513.747441166,101513.747028034,101513.746614792,101513.746201443,101513.745787985,101513.745374419,101513.744960745,101513.744546963,101513.744133073,101513.743719074,101513.743304967,101513.742890753,101513.74247643,101513.742062,101513.741647461,101513.741232815,101513.74081806,101513.740403198,101513.739988228,101513.73957315,101513.739157965,101513.738742672,101513.738327271,101513.737911763,101513.737496146,101513.737080423,-165508.9189384,101513.736248653,101513.735832607,101513.735416454,101513.735000193,101513.734583824,101513.734167349,101513.733750766,101513.733334076,101513.732917279,101513.732500374,101513.732083362,101513.731666244,101513.731249018,101513.730831685,101513.730414245,101513.729996698,101513.729579044,101513.729161283,101513.728743415,101513.728325441,101513.72790736,101513.727489172,101513.727070877,101513.726652475,101513.726233967,101513.725815352,101513.72539663,101513.724977802,101513.724558868,101513.724139827,101513.723720679,101513.723301425,101513.722882064,101513.722462598,101513.722043024,101513.721623345,101513.721203559,101513.720783667,101513.720363669,101513.719943565,101513.719523354,101513.719103038,101513.718682615,101513.718262086,101513.717841452,209378.96313902,209378.962033259,209378.960927543,209378.959821874,209378.95871625,209378.957610672,209378.95650514,209378.955399654,209378.954294213,209378.953188819,209378.95208347,209378.950978168,209378.949872911,209378.9487677,209378.947662535,209378.946557416,209378.945452344,209378.944347317,209378.943242336,209378.942137402,209378.941032513,209378.939927671,209378.938822875,209378.937718125,209378.936613421,101513.706867858,101513.706444374,101513.706020785,101513.705597091,101513.705173293,101513.704749389,101513.704325381,101513.703901267,101513.703477049,101513.703052726,101513.702628298,101513.702203766,101513.701779128,101513.701354387,-165508.700348471,-165508.697780345,-165508.6952123,-165508.692644338,-165508.690076457,-165508.687508658,209378.913425346,209378.912321664,209378.911218028,-165508.677238281,-165508.674670891,-165508.672103583,-165508.669536357,-165508.666969213,-165508.664402151
-90111.0898225599,-90111.0868599956,-90111.08389768,-90111.080935613,-90111.0779737946,-90111.0750122248,-90111.0720509036,-90111.069089831,-90111.066129007,-90111.0631684315,-90111.0602081047,-90111.0572480264,-90111.0542881965,-90111.0513286153,-90111.0483692826,-90111.0454101985,-90111.0424513628,-90111.0394927757,-90111.0365344371,-90111.033576347,-90111.0306185053,-136237.19731762,-90111.0247035674,-90111.0217464712,-90111.0187896234,-90111.0158330241,-90111.0128766732,-90111.0099205708,-90111.0069647168,-90111.0040091112,-90111.001053754,-90110.9980986452,-90110.9951437848,-136237.181705146,-90110.9892348091,-136237.179102764,-90110.9833268269,-90110.9803732084,-90110.9774198382,-90110.9744667163,-90110.9715138427,-90110.9685612175,-90110.9656088406,-90110.962656712,-90110.9597048317,-90110.9567531996,-90110.9538018158,-90110.9508506804,-90110.9478997932,-90110.9449491542,-165509.011696036,-165509.009118001,-165509.006540048,-165509.003962177,-165509.001384388,-165508.998806681,-165508.996229056,-165508.993651513,-165508.991074052,-165508.988496672,-165508.985919375,-90110.9095608481,-90110.9066134358,-90110.9036662717,-165508.975611005,-90110.8977726879,-165508.970457311,-165508.967880588,-165508.965303946,-165508.962727386,-165508.960150908,-165508.957574511,-165508.954998197,-165508.952421965,-90110.8712638416,-165508.947269746,-165508.94469376,-165508.942117855,-165508.939542032,-165508.936966292,-165508.934390633,-165508.931815056,-165508.929239561,-165508.926664148,-165508.924088817,-165508.921513567,-136237.112712493,-165508.916363315,-165508.913788311,-165508.911213389,-165508.90863855,-165508.906063792,-165508.903489116,-165508.900914522,-165508.89834001,-165508.89576558,-165508.893191232,-165508.890616965,-165508.888042781,-165508.885468678,-165508.882894658,-165508.880320719,-165508.877746862,-165508.875173087,-165508.872599394,-165508.870025783,-165508.867452254,-165508.864878807,-165508.862305441,-165508.859732158,-165508.857158956,-165508.854585836,-165508.852012798,-165508.849439842,-165508.846866968,-165508.844294176,-165508.841721465,-165508.839148837,-165508.83657629,-165508.834003826,-165508.831431443,-165508.828859142,-165508.826286923,-165508.823714785,-165508.82114273,-165508.818570757,-90110.718494834,-90110.7155635339,-165508.810855327,-165508.808283681,-90110.7067711194,-165508.803140635,101513.717420711,101513.716999864,101513.716578912,101513.716157854,101513.71573669,101513.71531542,101513.714894044,101513.714472563,101513.714050975,101513.713629283,101513.713207484,101513.71278558,101513.712363571,101513.711941456,101513.711519235,101513.711096909,101513.710674478,101513.710251941,101513.709829299,101513.709406552,101513.708983699,101513.708560741,101513.708137678,101513.70771451,101513.707291236,-165508.736310831,-165508.733741559,-165508.731172369,-165508.728603261,-165508.726034234,-165508.72346529,-165508.720896427,-165508.718327646,-165508.715758947,-165508.71319033,-165508.710621794,-165508.708053341,-165508.705484969,-165508.702916679,-90110.5868313412,-90110.583911175,-90110.5809912561,-90110.5780715843,-90110.5751521598,-90110.5722329825,-165508.684940941,-165508.682373306,-165508.679805753,-90110.5605587448,-90110.5576408033,-90110.5547231089,-90110.5518056617,-90110.5488884616,-90110.5459715086
-136237.224631956,-136237.223331489,-136237.222031,-136237.22073049,-136237.219429959,-136237.218129405,-136237.216828831,-136237.215528234,-136237.214227616,-136237.212926977,-136237.211626316,-136237.210325633,-136237.209024929,-136237.207724204,-136237.206423456,-136237.205122687,-136237.203821897,-136237.202521085,-136237.201220251,-136237.199919395,-136237.198618519,46791.4819850094,-136237.1960167,-136237.194715758,-136237.193414794,-136237.192113809,-136237.190812802,-136237.189511773,-136237.188210723,-136237.186909651,-136237.185608558,-136237.184307442,-136237.183006305,46791.4852569244,-136237.180403966,46791.4858022436,-136237.17780154,-136237.176500294,-136237.175199027,-136237.173897738,-136237.172596427,-136237.171295094,-136237.169993739,-136237.168692363,-136237.167390965,-136237.166089545,-136237.164788104,-136237.16348664,-136237.162185155,-136237.160883648,-90110.9419987635,-90110.939048621,-90110.9360987268,-90110.9331490808,-90110.930199683,-90110.9272505335,-90110.9243016321,-90110.9213529789,-90110.918404574,-90110.9154564172,-90110.9125085086,-136237.14526386,-136237.143962068,-136237.142660255,-90110.9007193557,-136237.140056563,-90110.8948262681,-90110.8918800965,-90110.888934173,-90110.8859884976,-90110.8830430703,-90110.880097891,-90110.8771529598,-90110.8742082767,-136237.128338864,-90110.8683196546,-90110.8653757156,-90110.8624320246,-90110.8594885817,-90110.8565453867,-90110.8536024398,-90110.8506597409,-90110.8477172899,-90110.844775087,-90110.841833132,-90110.838891425,93311.8928320983,-136237.111410152,-90110.8300677917,-90110.8271270765,-90110.8241866092,-90110.8212463898,-90110.8183064184,-90110.8153666948,-90110.8124272191,-90110.8094879913,-90110.8065490115,-90110.8036102794,-90110.8006717953,-90110.797733559,-90110.7947955705,-90110.7918578299,-90110.7889203371,-90110.7859830922,-90110.783046095,-90110.7801093456,-90110.7771728441,-90110.7742365903,-90110.7713005842,-90110.7683648259,-90110.7654293154,-90110.7624940526,-90110.7595590375,-90110.7566242702,-90110.7536897506,-90110.7507554787,-90110.7478214544,-90110.7448876779,-90110.7419541491,-90110.7390208679,-90110.7360878344,-90110.7331550486,-90110.7302225104,-90110.7272902198,-90110.7243581769,-90110.7214263816,-136237.060601587,-136237.059298359,-90110.7126324815,-90110.7097016767,-136237.05538854,-90110.7038408098,-90110.7009107477,-90110.6979809331,-90110.6950513661,-90110.6921220467,-165508.790284452,-165508.787713461,-165508.785142552,-165508.782571724,-165508.780000979,-165508.777430316,-165508.774859734,-165508.772289234,-165508.769718816,-165508.76714848,-165508.764578226,-165508.762008053,-165508.759437963,-165508.756867954,-165508.754298027,-165508.751728182,-165508.749158419,-165508.746588738,-165508.744019138,-165508.741449621,-165508.738880185,-90110.6277396311,-90110.6248160029,-90110.621892622,-90110.6189694885,-90110.6160466022,-90110.6131239634,-90110.6102015718,-90110.6072794275,-90110.6043575305,-90110.6014358807,-90110.5985144783,-90110.5955933232,-90110.5926724153,-90110.5897517546,-136237.001934117,-136237.000629878,-136236.999325616,93311.9408201192,-136236.996717025,-136236.995412695,-90110.5693140524,-90110.5663953693,-90110.5634769335,-136236.99019515,-136236.988890707,-136236.987586241,-136236.986281753,-136236.984977242,-136236.983672708
46791.4762591583,46791.4765318179,46791.4768044774,46791.477077137,46791.4773497966,46791.4776224562,46791.4778951158,46791.4781677753,46791.4784404349,46791.4787130945,46791.4789857541,46791.4792584137,93311.8524785352,93311.8530238536,93311.853569172,93311.8541144904,93311.8546598088,46791.4808943711,46791.4811670307,46791.4814396903,46791.4817123499,-5533.27144314841,46791.482257669,46791.4825303286,46791.4828029882,46791.4830756478,46791.4833483073,46791.4836209669,46791.4838936265,46791.4841662861,46791.4844389457,46791.4847116052,46791.4849842648,-5533.29107463665,46791.485529584,-5533.29434655135,93311.8655661773,93311.8661114959,93311.8666568143,93311.8672021327,93311.8677474511,93311.8682927696,93311.868838088,93311.8693834064,93311.8699287248,93311.8704740433,93311.8710193617,93311.8715646801,93311.8721099985,93311.872655317,-136237.159582119,-136237.158280568,-136237.156978996,-136237.155677402,-136237.154375785,-136237.153074147,-136237.151772487,-136237.150470806,-136237.149169102,-136237.147867376,-136237.146565629,93311.879199138,93311.8797444564,93311.8802897748,-136237.14135842,93311.8813804116,-136237.138754684,-136237.137452784,-136237.136150861,-136237.134848916,-136237.13354695,-136237.132244961,-136237.130942951,-136237.129640918,93311.8862882773,-136237.127036787,-136237.125734689,-136237.124432568,-136237.123130426,-136237.121828261,-136237.120526075,-136237.119223866,-136237.117921636,-136237.116619383,-136237.115317108,-136237.114014812,46791.4997078819,93311.8933774167,-136237.11010779,-136237.108805405,-136237.107502998,-136237.106200569,-136237.104898117,-136237.103595644,-136237.102293149,-136237.100990631,-136237.099688092,-136237.09838553,-136237.097082946,-136237.09578034,-136237.094477712,-136237.093175062,-136237.09187239,-136237.090569695,-136237.089266978,-136237.087964239,-136237.086661478,-136237.085358695,-136237.084055889,-136237.082753062,-136237.081450212,-136237.08014734,-136237.078844445,-136237.077541529,-136237.07623859,-136237.074935629,-136237.073632646,-136237.07232964,-136237.071026612,-136237.069723562,-136237.06842049,-136237.067117395,-136237.065814278,-136237.064511139,-136237.063207977,-136237.061904794,93311.9146448348,93311.9151901532,-136237.057995108,-136237.056691835,93311.9168261085,-136237.054085222,93311.9179167454,-136237.051478519,-136237.050175134,-136237.048871727,-90110.6891929748,-90110.6862641504,-90110.6833355735,-90110.6804072442,-90110.6774791624,-90110.674551328,-90110.6716237412,-90110.6686964018,-90110.6657693099,-90110.6628424655,-90110.6599158685,-90110.656989519,-90110.6540634169,-90110.6511375622,-90110.6482119549,-90110.6452865951,-90110.6423614826,-90110.6394366176,-90110.6365119999,-90110.6335876296,-90110.6306635067,-136237.020191097,-136237.018887173,-136237.017583228,-136237.016279259,-136237.014975268,-136237.013671255,-136237.012367218,-136237.01106316,-136237.009759079,-136237.008454975,-136237.007150849,-136237.0058467,-136237.004542528,-136237.003238334,93311.939184164,93311.9397294824,93311.9402748008,46791.5237019243,93311.9413654376,93311.9419107561,-136236.994108343,-136236.992803968,-136236.99149957,93311.9440920297,93311.9446373481,93311.9451826666,93311.945727985,93311.9462733034,93311.9468186218
-5533.23708804379,-5533.23872400116,-5533.24035995853,-5533.2419959159,-5533.24363187326,-5533.24526783063,-5533.24690378799,-5533.24853974536,-5533.25017570273,-5533.25181166009,-5533.25344761745,-5533.25508357481,46791.4795310732,46791.4798037328,46791.4800763924,46791.480349052,46791.4806217116,-5533.26489931897,-5533.26653527634,-5533.26817123369,-5533.26980719105,-102329.569976395,-5533.27307910577,-5533.27471506312,-5533.27635102048,-5533.27798697784,-5533.27962293519,-5533.28125889254,-5533.2828948499,-5533.28453080725,-5533.2861667646,-5533.28780272195,-5533.2894386793,-102329.607516458,-5533.292710594,-102329.613773132,46791.4860749031,46791.4863475627,46791.4866202223,46791.4868928819,46791.4871655415,46791.487438201,46791.4877108606,46791.4879835202,46791.4882561798,46791.4885288393,46791.4888014989,46791.4890741585,46791.4893468181,46791.4896194777,93311.8732006354,93311.8737459538,93311.8742912722,93311.8748365907,93311.8753819091,93311.8759272275,93311.8764725459,93311.8770178643,93311.8775631827,93311.8781085012,93311.8786538196,46791.4928913926,46791.4931640522,46791.4934367117,93311.8808350932,46791.4939820309,93311.88192573,93311.8824710485,93311.8830163669,93311.8835616853,93311.8841070037,93311.8846523221,93311.8851976405,93311.8857429589,46791.496435967,93311.8868335958,93311.8873789142,93311.8879242326,93311.888469551,93311.8890148694,93311.8895601878,93311.8901055062,93311.8906508247,93311.8911961431,93311.8917414615,93311.8922867799,-5533.37778037441,46791.4999805415,93311.8939227352,93311.8944680536,93311.895013372,93311.8955586904,93311.8961040088,93311.8966493272,93311.8971946456,93311.897739964,93311.8982852824,46791.5027071372,46791.5029797967,46791.5032524563,46791.5035251159,46791.5037977754,46791.504070435,46791.5043430946,46791.5046157541,93311.9031931481,93311.9037384665,93311.9042837849,93311.9048291033,93311.9053744217,93311.9059197401,93311.9064650585,93311.9070103769,93311.9075556954,93311.9081010138,93311.9086463322,93311.9091916506,93311.909736969,93311.9102822874,93311.9108276059,93311.9113729243,93311.9119182427,93311.9124635611,93311.9130088796,93311.913554198,93311.9140995164,46791.5106142647,46791.5108869243,93311.9157354717,93311.9162807901,46791.511704903,93311.9173714269,46791.5122502221,93311.9184620638,93311.9190073822,93311.9195527007,-136237.047568298,-136237.046264846,-136237.044961371,-136237.043657875,-136237.042354355,-136237.041050814,-136237.03974725,-136237.038443664,-136237.037140055,-136237.035836424,-136237.03453277,-136237.033229094,-136237.031925395,-136237.030621674,-136237.029317931,-136237.028014165,-136237.026710376,-136237.025406565,-136237.024102732,-136237.022798876,-136237.021494998,93311.9315497061,93311.9320950245,93311.932640343,93311.9331856614,93311.9337309798,93311.9342762983,93311.9348216167,93311.9353669351,93311.9359122535,93311.9364575719,93311.9370028904,93311.9375482088,93311.9380935272,93311.9386388456,46791.5228839456,46791.5231566052,46791.5234292647,66706.3616415565,46791.5239745839,46791.5242472434,93311.9424560745,93311.9430013929,93311.9435467113,46791.5253378817,46791.5256105413,46791.5258832008,46791.5261558604,46791.52642852,46791.5267011796
-102329.504281212,-102329.507409556,-102329.5105379,-102329.513666243,-102329.516794587,-102329.51992293,-102329.523051273,-102329.526179616,-102329.529307959,-102329.532436302,-102329.535564644,-102329.538692986,-5533.25671953218,-5533.25835548954,-5533.2599914469,-5533.26162740426,-5533.26326336161,-102329.557463034,-102329.560591374,-102329.563719715,-102329.566848055,-50559.9340433319,-102329.573104735,-102329.576233074,-102329.579361414,-102329.582489753,-102329.585618092,-102329.58874643,-102329.591874769,-102329.595003107,-102329.598131445,-102329.601259783,-102329.60438812,-50559.9513835753,-102329.610644795,-50559.9542737062,-5533.29598250869,-5533.29761846605,-5533.29925442339,-5533.30089038074,-5533.30252633809,-5533.30416229544,-5533.30579825279,-5533.30743421013,-5533.30907016748,-5533.31070612483,-5533.31234208218,-5533.31397803952,-5533.31561399687,-5533.31724995422,46791.4898921372,46791.4901647968,46791.4904374564,46791.490710116,46791.4909827756,46791.4912554351,46791.4915280947,46791.4918007543,46791.4920734139,46791.4923460734,46791.492618733,-5533.33688144217,-5533.33851739947,-5533.34015335677,46791.4937093713,-5533.34342527136,46791.4942546904,46791.49452735,46791.4948000096,46791.4950726692,46791.4953453287,46791.4956179883,46791.4958906479,46791.4961633075,-5533.35814888693,46791.4967086266,46791.4969812862,46791.4972539457,46791.4975266053,46791.4977992649,46791.4980719245,46791.498344584,46791.4986172436,46791.4988899032,46791.4991625628,46791.4994352223,-102329.773318022,-5533.37941633167,46791.500253201,46791.5005258606,46791.5007985202,46791.5010711798,46791.5013438393,46791.5016164989,46791.5018891585,46791.502161818,46791.5024344776,66706.3196520788,66706.3201973967,66706.3207427146,66706.3212880325,66706.3218333503,66706.3223786682,66706.3229239861,66706.323469304,46791.5048884137,46791.5051610733,46791.5054337328,46791.5057063924,46791.505979052,46791.5062517115,46791.5065243711,46791.5067970307,46791.5070696902,46791.5073423498,46791.5076150094,46791.507887669,46791.5081603285,46791.5084329881,46791.5087056477,46791.5089783072,46791.5092509668,46791.5095236264,46791.509796286,46791.5100689456,46791.5103416051,66706.3354662975,66706.3360116154,46791.5111595839,46791.5114322434,66706.3376475691,46791.5119775626,66706.3387382049,46791.5125228817,46791.5127955413,46791.5130682009,93311.9200980191,93311.9206433375,93311.9211886559,93311.9217339743,93311.9222792928,93311.9228246112,93311.9233699296,93311.9239152481,93311.9244605665,93311.9250058849,93311.9255512034,93311.9260965218,93311.9266418402,93311.9271871587,93311.9277324771,93311.9282777955,93311.928823114,93311.9293684324,93311.9299137508,93311.9304590692,93311.9310043877,46791.5190667116,46791.5193393711,46791.5196120307,46791.5198846903,46791.5201573499,46791.5204300094,46791.520702669,46791.5209753286,46791.5212479882,46791.5215206477,46791.5217933073,46791.5220659669,46791.5223386265,46791.522611286,66706.3600056028,66706.3605509207,66706.3610962386,-5533.52174461329,66706.3621868744,66706.3627321922,46791.524519903,46791.5247925626,46791.5250652221,66706.3649134638,66706.3654587816,66706.3660040995,66706.3665494174,66706.3670947353,66706.3676400532
-50559.9037001417,-50559.905144991,-50559.9065898467,-50559.9080347089,-50559.9094795776,-50559.9109244527,-50559.9123693342,-50559.9138142223,-50559.9152591167,-50559.9167040176,-50559.918148925,-50559.9195938388,-102329.541821328,-102329.544949669,-102329.548078011,-102329.551206352,-102329.554334693,-50559.9282634573,-50559.9297084162,-50559.9311533817,-50559.9325983536,-332.607087472999,-50559.9354883167,-50559.936933308,-50559.9383783057,-50559.9398233098,-50559.9412683204,-50559.9427133375,-50559.944158361,-50559.945603391,-50559.9470484274,-50559.9484934702,-50559.9499385196,-315212.279358445,-50559.9528286375,-315212.288668774,-102329.616901469,-102329.620029805,-102329.623158141,-102329.626286477,-102329.629414813,-102329.632543149,-102329.635671484,-102329.63879982,-102329.641928155,-102329.645056489,-102329.648184824,-102329.651313158,-102329.654441492,-102329.657569826,-5533.31888591157,-5533.32052186891,-5533.32215782625,-5533.32379378359,-5533.32542974092,-5533.32706569825,-5533.32870165559,-5533.33033761291,-5533.33197357023,-5533.33360952755,-5533.33524548486,-102329.695109816,-102329.698238147,-102329.701366477,-5533.34178931407,-102329.707623138,-5533.34506122865,-5533.34669718593,-5533.34833314321,-5533.3499691005,-5533.35160505778,-5533.35324101507,-5533.35487697237,-5533.35651292965,-102329.735778101,-5533.35978484425,-5533.36142080155,-5533.36305675886,-5533.36469271613,-5533.36632867342,-5533.3679646307,-5533.36960058799,-5533.37123654528,-5533.37287250257,-5533.37450845986,-5533.37614441714,-50560.0279807598,-102329.776446348,-5533.38105228895,-5533.38268824624,-5533.38432420351,-5533.38596016078,-5533.38759611804,66706.3174708073,66706.3180161252,66706.3185614431,66706.3191067609,-5533.39577590431,-5533.39741186155,-5533.39904781879,-5533.40068377603,-5533.40231973326,-5533.40395569048,-5533.40559164771,-5533.40722760494,66706.3240146218,66706.3245599397,66706.3251052576,66706.3256505755,66706.3261958933,66706.3267412112,66706.3272865291,66706.327831847,66706.3283771649,66706.3289224828,66706.3294678006,66706.3300131186,66706.3305584364,-5533.43013100644,66706.3316490722,66706.3321943901,66706.332739708,66706.3332850259,66706.3338303438,66706.3343756617,66706.3349209796,-5533.44321866469,-5533.44485462197,66706.3365569333,66706.3371022512,-5533.44976249382,66706.338192887,-5533.45303440839,66706.3392835228,66706.3398288407,66706.3403741586,46791.5133408605,46791.51361352,46791.5138861796,46791.5141588392,46791.5144314988,46791.5147041584,46791.5149768179,46791.5152494775,46791.5155221371,46791.5157947967,46791.5160674562,46791.5163401158,46791.5166127754,46791.516885435,46791.5171580945,46791.5174307541,46791.5177034137,46791.5179760733,46791.5182487328,46791.5185213924,46791.518794052,66706.3523711524,66706.3529164702,66706.3534617882,66706.354007106,66706.3545524239,66706.3550977418,66706.3556430597,66706.3561883776,66706.3567336955,66706.3572790134,66706.3578243313,66706.3583696492,66706.3589149671,66706.359460285,-5533.51683674164,-5533.51847269886,-5533.52010865607,-102330.048609758,-5533.5233805705,-5533.52501652771,-5533.52665248493,66706.363822828,66706.3643681459,-5533.53156035656,-5533.53319631376,-5533.53483227097,-5533.53646822817,-5533.53810418537,-5533.53974014257
-332.61490517969,-332.614529571101,-332.614154296146,-332.613779354834,-332.613404747173,-332.61303047317,-332.612656532832,-332.612282926168,-332.611909653187,-332.611536713895,-332.6111641083,-332.610791836409,-50559.9210387591,-50559.9224836858,-50559.923928619,-50559.9253735586,-50559.9268185047,-332.608565213311,-332.608195277574,-332.607825675605,-332.607456407411,272587.938499837,-332.606718872379,-332.606350605558,-332.605982672542,-315212.242117269,-315212.246772404,-315212.251427542,-315212.256082684,-315212.260737829,-315212.265392978,-315212.27004813,-315212.274703286,-332.602686297984,-315212.284013608,-332.601957442827,-50559.9557187813,-50559.9571638629,-50559.9586089509,-50559.9600540454,-50559.9614991463,-50559.9629442537,-50559.9643893675,-50559.9658344878,-50559.9672796146,-50559.9687247477,-50559.9701698874,-50559.9716150334,-50559.973060186,-50559.974505345,-102329.66069816,-102329.663826493,-102329.666954827,-102329.67008316,-102329.673211492,-102329.676339825,-102329.679468157,-102329.682596489,-102329.685724821,-102329.688853153,-102329.691981484,-221060.768960642,-50559.9932929985,-50559.9947382477,-102329.704494808,-50559.9976287655,-102329.710751468,-102329.713879798,-102329.717008128,-102329.720136457,-102329.723264786,-102329.726393115,-102329.729521444,-102329.732649772,-50560.0106364149,-102329.738906429,-102329.742034757,-102329.745163084,-102329.748291411,-102329.751419739,-102329.754548066,-102329.757676392,-102329.760804719,-102329.763933045,-102329.767061371,-102329.770189697,-315212.526086917,-50560.0294261638,-102329.779574673,-102329.782702998,-102329.785831322,-102329.788959647,-102329.792087971,-5533.3892320753,-5533.39086803256,-5533.39250398981,-5533.39413994707,-102329.807729588,-102329.810857911,-102329.813986234,-102329.817114556,-102329.820242878,-102329.8233712,-102329.826499521,-102329.829627843,-5533.40886356217,-5533.4104995194,-5533.41213547663,-5533.41377143388,-5533.41540739113,-5533.41704334838,-5533.41867930562,-5533.42031526286,-5533.42195122011,-5533.42358717737,-5533.42522313464,-5533.42685909191,-5533.42849504918,-102329.873424318,-5533.43176696372,-5533.433402921,-5533.43503887828,-5533.43667483556,-5533.43831079285,-5533.43994675013,-5533.44158270741,-102329.898450855,-102329.901579171,-5533.44649057926,-5533.44812653654,-102329.910964118,-5533.4513984511,-102329.917220748,-5533.45467036567,-5533.45630632295,-5533.45794228023,66706.3409194765,66706.3414647944,66706.3420101123,66706.3425554302,66706.3431007481,66706.343646066,66706.3441913839,66706.3447367018,66706.3452820197,66706.3458273376,66706.3463726555,66706.3469179734,66706.3474632913,66706.3480086092,66706.3485539271,66706.349099245,66706.3496445629,66706.3501898808,66706.3507351987,66706.3512805166,66706.3518258345,-5533.49393334021,-5533.49556929747,-5533.49720525473,-5533.49884121199,-5533.50047716924,-5533.5021131265,-5533.50374908375,-5533.505385041,-5533.50702099825,-5533.50865695549,-5533.51029291273,-5533.51192886996,-5533.51356482719,-5533.51520078442,-102330.039224843,-102330.042353148,-102330.045481453,-50560.1552009803,-102330.051738062,-102330.054866366,-102330.05799467,-5533.52828844214,-5533.52992439935,-102330.067379581,-102330.070507884,-102330.073636186,-102330.076764489,-102330.079892791,-102330.083021093
0.550402653106103,0.55039295234627,0.550383250886422,0.550373548726613,0.55036384586688,0.550354142307281,0.550344438047867,0.550334733088682,0.550325027429791,0.550315321071244,0.55030561401308,0.550295906255375,-332.610419898232,-332.610048293775,-332.609677023047,-332.609306086055,-332.608935482808,0.55023764502125,0.550227932368035,0.550218219015696,0.550208504964268,58011.4248837474,0.550189074764192,0.550179358616013,0.550169641768709,-332.605615073342,-332.605247807963,-332.604880876414,-332.604514278703,-332.604148014837,-332.603782084825,-332.603416488674,-332.603051226391,0.550082158702038,-332.60232170346,0.550062710337168,-315212.293323944,-315212.297979118,-315212.302634295,-315212.307289475,-315212.311944659,-315212.316599847,-315212.321255038,-315212.325910232,-315212.33056543,-315212.335220632,-315212.339875837,-315212.344531045,-315212.349186258,-315212.353841473,-50559.9759505104,-50559.9773956823,-50559.9788408606,-315212.372462371,-315212.377117604,-50559.9831764343,-50559.9846216384,-50559.9860668489,-50559.987512066,-221060.767364485,-221060.768162562,673091.97742276,-221060.769758724,-221060.770556808,-50559.9961835034,-221060.772152983,-50559.9990740342,-50560.0005193092,-50560.0019645906,-50560.0034098785,-50560.0048551729,-50560.0063004737,-50560.007745781,-50560.0091910947,-315212.470223004,-50560.0120817415,-50560.0135270746,-50560.0149724141,-50560.01641776,-50560.0178631125,-50560.0193084713,-50560.0207538366,-50560.0221992084,-50560.0236445866,-50560.0250899712,-50560.0265353623,-221060.788913341,-315212.530742266,-50560.0308715742,-50560.0323169911,-50560.0337624144,-50560.0352078442,-50560.0366532804,-102329.795216295,-102329.798344619,-102329.801472942,-102329.804601265,-50560.0438805581,-50560.0453260329,-50560.0467715142,-50560.048217002,-50560.0496624962,-50560.0511079968,-50560.0525535039,-50560.0539990174,-102329.832756164,-102329.835884485,-102329.839012805,-102329.842141126,-102329.845269446,-102329.848397766,-102329.851526086,-102329.854654405,-102329.857782725,-102329.860911044,-102329.864039363,-102329.867167681,-102329.870296,-50560.074236884,-102329.876552636,-102329.879680954,-102329.882809271,-102329.885937588,-102329.889065905,-102329.892194222,-102329.895322539,-50560.0858019465,-50560.0872476083,-102329.904707487,-102329.907835803,-221060.824033379,-102329.914092433,-221060.825629843,-102329.920349063,-102329.923477378,-102329.926605692,-5533.45957823751,-5533.46121419479,-5533.46285015207,-5533.46448610935,-5533.46612206663,-5533.46775802391,-5533.46939398118,-5533.47102993845,-5533.47266589573,-5533.474301853,-5533.47593781027,-5533.47757376754,-5533.47920972481,-5533.48084568208,-5533.48248163935,-5533.48411759662,-5533.48575355388,-5533.48738951115,-5533.48902546841,-5533.49066142568,-5533.49229738294,-102329.995428544,-102329.998556853,-102330.001685161,-102330.004813469,-102330.007941777,-102330.011070085,-102330.014198392,-102330.0173267,-102330.020455007,-102330.023583313,-102330.02671162,-102330.029839926,-102330.032968232,-102330.036096538,-50560.150863106,-50560.1523090577,-50560.1537550158,-315212.935770984,-50560.1566469513,-50560.1580929287,-50560.1595389126,-102330.061122974,-102330.064251278,-50560.1638769027,-50560.1653229123,-50560.1667689284,-50560.1682149509,-50560.1696609798,-50560.1711070151
272588.155014153,272588.144703743,272588.134393354,272588.124082985,272588.113772636,272588.103462308,272588.093152001,272588.082841713,272588.072531446,272588.0622212,272588.051910974,272588.041600769,272588.031290584,0.550276488641206,0.550266778785309,0.550257068229878,0.550247356975245,272587.979739965,272587.969429902,272587.95911986,272587.948809838,-56565.2473477943,272587.928189856,272587.917879896,272587.907569956,0.550159924222487,0.550150205977653,0.550140487034041,0.550130767391807,0.550121047050882,0.550111326011408,0.550101604273417,0.550091881836943,272587.814781416,0.550072434868764,272587.794161965,-332.601593516099,-332.601229923275,-332.600866664367,-332.60050373938,-332.600141148325,-332.599778891206,-332.599416968036,-332.599055378819,673091.768336153,-221060.756191627,-221060.756989674,-221060.757787724,-221060.758585775,-221060.759383829,-315212.358496692,-315212.363151915,-315212.367807141,-221060.762576065,-221060.76337413,-315212.381772841,-315212.386428081,-221060.765768336,-221060.766566409,673091.952824323,673091.965123541,2513.90540722153,673091.989721979,2513.90486647823,-221060.771354894,673092.026619644,-221060.772951073,-221060.773749166,-315212.442291236,-221060.775345358,-315212.451601811,-315212.456257104,-315212.460912401,-315212.465567701,-221060.779335876,-221060.780133986,-315212.479533621,-315212.484188935,-315212.488844252,-315212.493499573,-315212.498154897,-315212.502810225,-315212.507465557,-315212.512120891,-315212.51677623,-315212.521431572,441458.393833531,-221060.789711477,-315212.535397618,-315212.540052974,-315212.544708333,-315212.549363696,-315212.554019062,-50560.038098723,-50560.0395441721,-50560.0409896277,-50560.0424350896,-315212.577295947,-315212.581951334,-315212.586606725,-315212.591262119,-315212.595917517,-315212.600572918,-315212.605228323,-315212.609883731,-50560.0554445374,-50560.0568900639,-50560.0583355967,-50560.0597811361,-50560.0612266818,-50560.0626722341,-50560.0641177927,-50560.0655633579,-50560.0670089294,-50560.0684545074,-50560.0699000919,-50560.0713456828,-50560.0727912802,-221060.814454772,-221060.815252977,-50560.077128111,-50560.0785737341,-50560.0800193637,-315212.698337153,-50560.0829106423,-50560.0843562912,-221060.820840475,-221060.821638698,-50560.0886932766,-50560.0901389513,441461.508325329,-221060.82483161,441461.649893128,-221060.826428079,-221060.827226317,-221060.828024557,-102329.929734006,-102329.932862319,-102329.935990633,-102329.939118946,-102329.942247259,-102329.945375572,-102329.948503885,-102329.951632197,-102329.954760509,-102329.957888821,-102329.961017132,-102329.964145444,-102329.967273755,-102329.970402066,-102329.973530376,-102329.976658687,-102329.979786997,-102329.982915307,-102329.986043616,-102329.989171926,-102329.992300235,-50560.1306204588,-50560.1320663203,-50560.1335121883,-50560.1349580627,-50560.1364039435,-50560.1378498308,-50560.1392957245,-50560.1407416247,-50560.1421875313,-50560.1436334443,-50560.1450793638,-50560.1465252897,-50560.147971222,-50560.1494171608,-315212.921804038,-315212.926459683,-315212.931115332,-221060.859157589,441464.693600581,-315212.945082299,-315212.949737961,-50560.1609849028,-50560.1624308996,-315212.96370497,-315212.968360646,-315212.973016326,-315212.977672009,-315212.982327696,-315212.986983386
58011.2647894928,58011.2724130213,58011.2800365505,58011.2876600804,58011.295283611,58011.3029071424,58011.3105306746,58011.3181542075,58011.3257777412,58011.3334012756,58011.3410248108,58011.3486483467,58011.3562718831,272588.020980419,272588.010670275,272588.000360151,272587.990050048,58011.3943895779,58011.4020131192,58011.4096366611,58011.4172602039,-46080.3622493887,58011.4325072918,58011.4401308368,58011.4477543827,272587.897260036,272587.886950137,272587.876640259,272587.8663304,272587.856020563,272587.845710745,272587.835400948,272587.825091172,58011.5163663301,272587.80447168,58011.5316134383,0.550052985107314,0.550043259179219,0.550033532552972,0.550023805228612,0.550014077206188,0.550004348485739,0.549994619067339,0.549984888951026,-332.598694123563,673091.780635358,673091.792934564,673091.805233771,673091.817532979,673091.829832188,-221060.760181885,-221060.760979943,-221060.761778003,673091.879029032,673091.891328245,-221060.764172196,-221060.764970265,673091.928225889,673091.940525105,2513.90594796001,2513.90567759138,-332.592603887916,2513.90513685048,-332.591893736803,673092.014320421,2513.9043257301,673092.038918867,673092.051218091,-221060.774547261,673092.075816542,-221060.776143457,-221060.776941559,-221060.777739662,-221060.778537768,-441.717046645094,-441.717195942915,-221060.780932099,-221060.781730213,-221060.78252833,-221060.783326448,-221060.784124569,-221060.784922693,-221060.785720818,-221060.786518945,-221060.787317075,-221060.788115207,-441.718838158699,441458.464617441,-221060.790509615,-221060.791307756,-221060.792105899,-221060.792904043,-221060.79370219,-315212.558674432,-315212.563329806,-315212.567985182,-315212.572640563,-221060.797692958,-221060.798491118,-221060.79928928,-221060.800087444,-221060.800885611,-221060.801683779,-221060.80248195,-221060.803280123,-315212.614539143,-315212.619194558,-315212.623849977,-315212.628505399,-315212.633160825,-315212.637816254,-315212.642471687,-315212.647127123,-315212.651782563,-315212.656438006,-315212.661093453,-315212.665748903,-315212.670404357,441460.658918511,441460.729702414,-315212.684370739,-315212.689026207,-315212.693681678,-221060.81844582,-315212.702992632,-315212.707648113,441461.225189728,441461.295973629,-221060.822436923,-221060.82323515,-441.725405920138,441461.579109229,-441.725704412987,441461.720677029,441461.791460928,-441.726152145467,-50560.1002588547,-50560.101704581,-50560.1031503137,-50560.1045960528,-50560.1060417984,-50560.1074875504,-50560.1089333089,-50560.1103790738,-50560.1118248451,-50560.1132706229,-50560.1147164071,-50560.1161621978,-50560.1176079949,-50560.1190537985,-50560.1204996085,-50560.1219454249,-50560.1233912478,-50560.1248370771,-50560.1262829129,-50560.1277287551,-50560.1291746037,-315212.856625369,-315212.861280966,-315212.865936566,-315212.87059217,-315212.875247777,-315212.879903387,-315212.884559001,-315212.889214619,-315212.89387024,-315212.898525864,-315212.903181492,-315212.907837123,-315212.912492758,-315212.917148396,-221060.856762625,-221060.857560944,-221060.858359266,441464.622816693,-441.732121134422,441464.764384468,441464.835168355,-315212.954393627,-315212.959049297,-441.732867156563,441465.118303903,-221060.865544256,441465.259871672,-221060.867140944,441465.401439444
-56565.1029099925,-56565.1097878497,-56565.1166657203,-56565.1235436043,-56565.1304215016,-56565.1372994122,-56565.1441773362,-56565.1510552735,-56565.1579332242,-56565.1648111881,-56565.1716891654,-56565.1785671561,-56565.18544516,58011.3638954204,58011.3715189588,58011.3791424978,58011.3867660375,-56565.2198353794,-56565.2267134632,-56565.2335915603,-56565.2404696707,-4143.61921272491,-56565.2542259312,-56565.2611040815,-56565.267982245,58011.4553779293,58011.4630014767,58011.4706250248,58011.4782485738,58011.4858721235,58011.493495674,58011.5011192253,58011.5087427773,-56565.329886313,58011.5239898838,-56565.3436429183,272587.78385227,272587.773542595,272587.763232941,272587.752923308,272587.742613694,272587.732304102,272587.721994529,272587.711684977,0.549975158136842,-332.598333202277,-332.597972614968,-332.597612361644,-332.597252442314,-332.596892856983,673091.842131398,673091.854430608,673091.86672982,2513.90757014644,2513.90729978506,673091.903627459,673091.915926673,2513.90648869365,2513.90621832744,-332.593315375436,-332.592959464629,0.549809627575499,-332.592248645305,0.549790140145712,2513.90459610477,-332.591184922157,2513.90405535422,2513.90378497714,673092.063517316,2513.90324421937,673092.088115768,673092.100414996,673092.112714224,673092.125013454,673092.137312684,673092.149611915,441457.685994411,441457.756778324,441457.827562237,441457.89834615,441457.969130062,441458.039913975,441458.110697887,441458.181481799,441458.25226571,441458.323049621,2513.89864758416,-441.718987445568,441458.535401351,441458.606185261,441458.676969171,441458.74775308,441458.818536988,-221060.79450034,-221060.795298491,-221060.796096644,-221060.7968948,441459.172456525,441459.243240432,441459.314024338,441459.384808244,441459.455592149,441459.526376054,441459.597159958,441459.667943863,-221060.804078298,-221060.804876476,-221060.805674655,-221060.806472837,-221060.80727102,-221060.808069206,-221060.808867394,-221060.809665585,-221060.810463777,-221060.811261972,-221060.812060168,-221060.812858367,-221060.813656568,-441.723614886892,-441.723764144652,-221060.816051185,-221060.816849394,-221060.817647606,441461.012838023,-221060.819244036,-221060.820042255,-441.724808923565,-441.724958174068,441461.366757528,441461.437541429,673092.826070951,-441.725555167015,673092.850669511,-441.725853658052,-441.726002902212,673092.887567358,-221060.828822799,-221060.829621043,-221060.830419289,-221060.831217538,-221060.832015788,-315212.782136296,-315212.786791837,-315212.791447381,-315212.796102929,-315212.800758481,-315212.805414036,-315212.810069594,-315212.814725156,-315212.819380721,-315212.82403629,-315212.828691863,-315212.833347438,-315212.838003018,-315212.8426586,-315212.847314187,-315212.851969776,-221060.845586379,-221060.846384668,-221060.84718296,-221060.847981253,-221060.848779549,-221060.849577847,-221060.850376147,-221060.851174449,-221060.851972754,-221060.85277106,-221060.853569369,-221060.85436768,-221060.855165993,-221060.855964308,441464.410465029,441464.481248917,441464.552032805,-441.731971927294,-332.554260073885,-441.732270340651,-441.73241954598,441464.905952242,441464.976736128,-332.552677899871,-441.733016358291,441465.189087789,-441.733314759048,441465.330655558,-441.733613156207
-46080.461356087,-46080.456636445,-46080.4519168306,-46080.4471972437,-46080.4424776844,-46080.4377581526,-46080.4330386483,-46080.4283191716,-46080.4235997224,-46080.4188803008,-46080.4141609067,-46080.40944154,-46080.4047222011,-56565.1923231773,-56565.1992012079,-56565.2060792517,-56565.2129573089,-46080.3811259189,-46080.3764067451,-46080.3716875988,-46080.36696848,-50756.539346604,-46080.357530325,-46080.3528112888,-46080.3480922801,-56565.2748604217,-56565.2817386118,-56565.2886168151,-56565.2954950316,-56565.3023732614,-56565.3092515044,-56565.3161297607,-56565.3230080303,-46080.3056224406,-56565.336764609,-46080.2961850012,58011.5392369936,58011.5468605496,58011.5544841065,58011.5621076642,58011.5697312226,58011.5773547819,58011.584978342,58011.5926019029,272587.701375445,0.549965426624864,0.54995569441514,0.549945961507724,0.549936227902657,0.549926493599991,-332.596533605661,-332.596174688355,-332.595816105073,-332.595457855824,-332.595099940614,2513.90702942247,2513.90675905866,-332.594028199302,-332.59367162033,0.54982911221768,0.54981937024507,272587.526116532,0.549799884209034,272587.505498224,-332.591539162417,0.549770649928691,-332.59083101603,-332.590477444043,2513.90351459886,-332.589771302519,2513.90297383867,2513.90270345678,2513.90243307367,2513.90216268937,2513.90189230386,2513.90162191715,-441.717345239823,-441.717494535818,-441.717643830899,-441.717793125068,-441.717942418324,-441.718091710668,-441.718241002099,-441.718390292619,-441.718539582225,-441.718688870919,-332.583823073071,-332.583476185498,-441.719136731526,-441.719286016573,-441.719435300708,-441.719584583931,-441.719733866242,441458.889320897,441458.960104805,441459.030888712,441459.101672619,-441.720480264131,-441.720629540976,-441.720778816911,-441.720928091935,-441.721077366049,-441.721226639252,-441.721375911546,-441.721525182929,441459.738727767,441459.809511671,441459.880295575,441459.951079479,441460.021863383,441460.092647287,441460.163431191,441460.234215094,441460.304998996,441460.3757829,441460.446566803,441460.517350706,441460.588134609,673092.678479663,673092.690778932,441460.800486317,441460.871270219,441460.942054121,-441.724361166616,441461.083621925,441461.154405827,673092.776873841,673092.789173117,-441.725107423664,-441.725256672354,2513.88674880947,673092.838370231,2513.88620790159,673092.862968793,673092.875268075,2513.88539653093,441461.933028726,441462.003812627,441462.074596526,441462.145380424,441462.216164322,-221060.832814041,-221060.833612296,-221060.834410553,-221060.835208813,-221060.836007074,-221060.836805338,-221060.837603603,-221060.838401871,-221060.839200141,-221060.839998413,-221060.840796688,-221060.841594964,-221060.842393243,-221060.843191524,-221060.843989806,-221060.844788092,441463.41949055,441463.490274443,441463.561058336,441463.631842229,441463.702626122,441463.773410014,441463.844193906,441463.914977798,441463.985761689,441464.056545579,441464.127329469,441464.19811336,441464.26889725,441464.33968114,-441.731524300503,-441.731673510334,-441.731822719264,-332.554577513636,0.548694407753897,-332.553942969106,-332.553626199308,-441.732568750408,-441.732717953935,0.54864528847143,-332.55236247007,-441.733165559119,-332.55173261553,-441.733463958077,-332.551104101123
-4143.62103968161,-4143.62095279561,-4143.62086589841,-4143.62077899002,-4143.62069207042,-4143.62060513963,-4143.62051819764,-4143.62043124446,-4143.62034428008,-4143.62025730451,-4143.62017031775,-4143.62008331979,-4143.61999631065,-46080.4000028896,-46080.3952836056,-46080.3905643492,-46080.3858451203,-4143.61956109709,-4143.61947402082,-4143.61938693337,-4143.61929983473,36075.0656049418,-4143.61912560391,-4143.61903847173,-4143.61895132837,-46080.3433732989,-46080.3386543453,-46080.3339354192,-46080.3292165206,-46080.3244976496,-46080.3197788061,-46080.3150599901,-46080.3103412016,-4143.61816653518,-46080.3009037072,-4143.6179920138,-56565.3505212408,-56565.3573995765,-56565.3642779255,-56565.3711562876,-56565.378034663,-56565.3849130516,-56565.3917914534,-56565.3986698685,58011.6002254646,272587.691065934,272587.680756443,272587.670446973,272587.660137523,272587.649828094,0.549916758599777,0.549907022902078,0.549897286506952,0.549887549414463,0.549877811624661,-332.594742359452,-332.594385112346,0.549848594071849,0.549838853493296,272587.546734921,272587.536425716,58011.7298261381,272587.515807368,58011.7450732916,0.549780395385568,272587.484879998,0.549760903775138,0.549751156924915,-332.590124206203,0.54973166113472,-332.589418732997,-332.589066497646,-332.58871459647,-332.588363029482,-332.588011796687,-332.587660898095,673092.161911147,673092.174210379,2513.90081074982,2513.9005403583,2513.90026996559,2513.89999957168,-332.585213966229,2513.89945878027,2513.89918838277,2513.89891798407,0.549565834473306,0.549556073700783,-332.583129632229,2513.89783637728,2513.89756597259,2513.89729556671,2513.89702515963,-441.719883147643,-441.720032428132,-441.720181707709,-441.720330986376,2513.89567310635,2513.89540269211,2513.89513227668,2513.89486186007,2513.89459144226,2513.89432102327,2513.89405060308,-332.577630251267,-441.721674453404,-441.721823722969,-441.721972991626,-441.722122259374,-332.575929250937,-332.57559005425,-332.57525119204,-332.574912664317,-332.574574471086,673092.629282595,-441.72316710817,-441.723316368653,-441.723465628226,2513.88999415766,2513.88972371847,-441.723913401503,-441.724062657448,-441.724211912485,673092.739976018,-441.724510419839,-441.724659672155,2513.88783061109,2513.88756016246,673092.801472394,673092.813771672,-332.568876370941,2513.88647835612,-332.568212363478,2513.88593744588,2513.885666989,-332.567218862146,-441.726301387815,-441.726450629259,-441.726599869797,-441.72674910943,-441.726898348158,441462.28694822,441462.357732118,441462.428516015,441462.499299912,441462.570083808,441462.640867705,441462.711651601,441462.782435497,441462.853219393,441462.924003288,441462.994787184,441463.065571079,441463.136354973,441463.207138868,441463.277922762,441463.348706656,-441.729435268184,-441.729584490643,-441.729733712199,-441.729882932853,-441.730032152604,-441.730181371452,-441.730330589399,-441.730479806443,-441.730629022586,-441.730778237826,-441.730927452164,-441.731076665601,-441.731225878137,-441.731375089771,2513.87565926072,-332.555213398026,-332.554895288352,0.54870422953764,272586.351003113,272586.340696271,272586.33038945,-332.553309764497,-332.552993664682,272586.299469108,0.548635462542511,-332.552047375287,0.548615808612877,-332.551418190806,0.548596151920904
-50756.516844561,-50756.5179161965,-50756.5189878211,-50756.5200594347,-50756.5211310374,-50756.5222026291,-50756.5232742098,-50756.5243457796,-50756.5254173384,-50756.5264888862,-50756.527560423,-50756.5286319488,-50756.5297034637,-4143.61990929031,-4143.61982225879,-4143.61973521608,-4143.61964816218,-50756.5350608737,-50756.5361323228,-50756.5372037608,-50756.5382751879,NaN,-50756.5404180091,-50756.5414894032,-50756.5425607863,-4143.61886417383,-4143.61877700811,-4143.61868983121,-4143.61860264314,-4143.6185154439,-4143.61842823348,-4143.61834101189,-4143.61825377912,-50756.5522027396,-4143.61807928008,-50756.5543452749,-46080.2914663228,-46080.2867476719,-46080.2820290485,-46080.2773104526,-46080.2725918843,-46080.2678733434,-46080.26315483,-46080.2584363442,-56565.4055482967,58011.6078490271,58011.6154725904,58011.6230961546,58011.6307197195,58011.6383432853,272587.639518684,272587.629209296,272587.618899927,272587.608590579,272587.598281252,0.549868073137587,0.549858333953297,272587.567353392,272587.557044146,58011.7145789878,58011.7222025625,-56565.522483592,58011.7374497144,-56565.5362409353,272587.495189101,58011.7603204484,272587.474570915,272587.464261853,0.54974140937811,272587.443643791,0.549721912194815,0.549712162558469,0.549702412225635,0.549692661196495,0.549682909471029,0.549673157049373,2513.90135152924,2513.90108114013,-332.586610207599,-332.58626064589,-332.58591141842,-332.585562525197,0.549604870606879,-332.584865741524,-332.58451785109,-332.584170294937,272587.268393551,272587.258084897,0.549546312232635,-332.582783413265,-332.582437528623,-332.582091978303,-332.581746762319,2513.89675475136,2513.8964843419,2513.89621393124,2513.89594351939,-332.580025697656,-332.579682487831,-332.579339612391,-332.578997071347,-332.578654864705,-332.578312992474,-332.577971454658,0.549390034189212,-332.577289382308,-332.576948847789,-332.576608647715,-332.576268782096,0.549341160819732,0.549331384062259,0.549321606610404,0.549311828464275,0.549302049623839,-332.574236612353,673092.641581861,673092.653881127,673092.666180394,-332.57288852258,-332.572552336463,673092.703078202,673092.715377473,673092.727676745,2513.88864194992,673092.752275291,673092.764574566,-332.570208401379,-332.56987489185,2513.88728971264,2513.88701926165,0.549135703158898,-332.56854419989,0.549116119808088,-332.567880861711,-332.567549694598,0.549086739582681,673092.899866642,673092.912165927,673092.924465213,673092.9367645,673092.949063787,-441.727047585981,-441.727196822899,-441.727346058913,-441.727495294022,-441.727644528226,-441.727793761526,-441.727942993923,-441.728092225415,-441.728241456003,-441.728390685688,-441.728539914468,-441.728689142346,-441.72883836932,-441.72898759539,-441.729136820558,-441.729286044822,2513.87944615676,-332.559702099833,2513.87890518561,-332.5590568381,-332.558734709518,-332.558412915804,-332.558091456964,-332.557770333006,-332.557449543939,-332.55712908977,-332.556808970505,-332.556489186154,2513.87620025983,2513.87592976086,-332.55553184265,0.548723871031925,0.548714050630338,272586.361309975,58012.5989196273,58012.6065433095,58012.6141669928,272586.320082649,0.548655113709562,58012.6370380488,272586.289162368,0.548625635922989,272586.26854895,0.548605980612146,272586.247935612
36075.0592100077,36075.0595144842,36075.0598189651,36075.0601234504,36075.0604279402,36075.0607324343,36075.0610369329,36075.0613414359,36075.0616459433,36075.0619504552,36075.0622549714,36075.0625594921,36075.0628640172,-50756.5307749677,-50756.5318464607,-50756.5329179427,-50756.5339894137,36075.0643867089,36075.0646912605,36075.0649958165,36075.0653003769,NaN,36075.065909511,36075.0662140847,36075.0665186627,-50756.5436321585,-50756.5447035196,-50756.5457748697,-50756.5468462089,-50756.547917537,-50756.5489888542,-50756.5500601603,-50756.5511314555,36075.0692600641,-50756.5532740128,36075.0698693129,-4143.61790473635,-4143.61781744774,-4143.61773014796,-4143.61764283701,-4143.6175555149,-4143.61746818163,-4143.61738083719,-4143.61729348159,-46080.2537178859,-56565.4124267381,-56565.4193051928,-56565.4261836606,-56565.4330621416,-56565.4399406357,58011.6459668519,58011.6535904193,58011.6612139876,58011.6688375566,58011.6764611264,272587.587971945,272587.577662658,58011.6993318408,58011.7069554139,-56565.5087263013,-56565.5156049401,-46080.1735083029,-56565.5293622571,-46080.1640724041,58011.7526968696,-56565.5499983309,58011.7679440281,58011.7755676085,272587.453952812,58011.790814772,272587.43333479,272587.42302581,272587.41271685,272587.40240791,272587.392098991,272587.381790092,-332.587310333708,-332.58696010354,0.549643895607286,0.549634140401117,0.549624384498988,0.549614627900883,272587.309628371,0.549595112617029,0.54958535393144,0.549575594550168,58011.9204158007,58011.9280393983,272587.247776263,0.549536550068966,0.54952678720983,0.549517023655309,0.54950725940543,-332.581401880672,-332.581057333376,-332.580713120436,-332.58036924186,0.54945842772781,0.549448659307,0.549438890191165,0.549429120380421,0.549419349874817,0.549409578674404,0.549399806779164,272587.082840899,0.549380260904526,0.549370486925254,0.549360712251276,0.549350936882779,272587.031299668,272587.020991483,272587.010683318,272587.000375174,272586.99006705,0.549292270089015,-332.573899088128,2513.89053503247,2513.89026459565,0.549253145008603,0.54924336200341,2513.88945327811,2513.88918283656,2513.88891239383,-332.571210937537,2513.88837150482,2513.88810105855,0.549174861540039,0.549165072984948,-332.569541716929,-332.569208876624,272586.814832054,0.549125911830138,272586.794216559,0.549106327092784,0.549096533684303,272586.763293469,2513.8851260717,2513.88485561128,2513.88458514969,2513.88431468693,2513.88404422299,673092.961363076,673092.973662365,673092.985961655,673092.998260946,673093.010560238,673093.022859531,2513.88215094256,2513.88188046924,2513.88160999475,2513.8813395191,2513.88106904226,2513.88079856427,2513.88052808511,2513.88025760478,2513.87998712328,2513.87971664061,-332.56002523297,0.548861284062226,-332.559379301541,0.548841661928355,0.548831849823741,0.548822037027416,0.548812223539424,0.548802409359839,0.548792594488712,0.548782778926091,0.548772962672037,0.548763145726588,-332.556169736722,-332.555850622218,0.5487336907424,272586.38192376,272586.371616857,58012.591295946,-56566.3067350807,-56566.3136152186,-56566.3204953692,58012.6217906771,272586.309775868,-56566.3411358971,58012.6446617362,272586.278855649,58012.6599091141,272586.258242271,58012.675156496
NaN,NaN,NaN,NaN,NaN,NaN,NaN,NaN,NaN,NaN,NaN,NaN,NaN,36075.0631685467,36075.0634730806,36075.063777619,36075.0640821617,NaN,NaN,NaN,NaN,NaN,NaN,NaN,NaN,36075.0668232452,36075.0671278321,36075.0674324235,36075.0677370192,36075.0680416193,36075.0683462239,36075.0686508329,36075.0689554463,NaN,36075.0695646863,NaN,-50756.5554165261,-50756.5564877662,-50756.5575589954,-50756.5586302135,-50756.5597014206,-50756.5607726167,-50756.5618438018,-50756.5629149759,-4143.61720611483,-46080.248999455,-46080.2442810517,-46080.2395626759,-46080.2348443276,-46080.2301260068,-56565.4468191431,-56565.4536976636,-56565.4605761973,-56565.4674547442,-56565.4743333042,58011.6840846971,58011.6917082685,-56565.494969063,-56565.5018476756,-46080.1829443118,-46080.1782262936,-4143.61571917309,-46080.1687903398,-4143.61554402694,-56565.5431196265,-46080.1546366153,-56565.5568770484,-56565.563755779,58011.7831911899,-56565.5775132794,58011.798438355,58011.8060619389,58011.8136855237,58011.8213091093,58011.8289326958,58011.8365562831,0.549663403931417,0.549653650117357,272587.350863518,272587.340554701,272587.330245904,272587.319937127,58011.8899214185,272587.299319635,272587.28901092,272587.278702225,-56565.6944541473,-56565.7013331394,58011.9356629969,272587.23746765,272587.227159057,272587.216850485,272587.206541933,0.549497494460264,0.549487728819869,0.5494779624843,0.549468195453586,272587.154999478,272587.144691049,272587.134382639,272587.124074251,272587.113765882,272587.103457534,272587.093149206,58012.0576406934,272587.072532613,272587.062224346,272587.0519161,272587.041607874,58012.0957587707,58012.103382389,58012.1110060082,58012.1186296282,58012.1262532493,272586.979758946,0.549282489860095,-332.573561898419,-332.573225043233,272586.938526735,272586.928218733,-332.572216484892,-332.571880967877,-332.571545785422,0.549204223043811,-332.57087642423,-332.570542245508,272586.856063288,272586.845755449,0.549155283736358,0.549145493794322,58012.2558549522,272586.804524296,58012.2711022293,272586.783908842,272586.773601145,58012.2939731522,-332.566888364362,-332.566558201256,-332.566228372834,-332.565898879103,-332.565569720072,2513.88377375787,2513.88350329159,2513.88323282413,2513.88296235549,2513.88269188569,2513.88242141471,-332.563274979089,-332.56294849793,-332.562622351539,-332.562296539923,-332.56197106309,-332.561645921048,-332.561321113805,-332.560996641369,-332.560672503745,-332.560348700943,0.548871094091382,272586.526222534,0.548851473341201,272586.505608179,272586.495301032,272586.484993906,272586.4746868,272586.464379714,272586.454072648,272586.443765603,272586.433458578,272586.423151574,0.548753328089785,0.548743509761706,272586.392230683,58012.5760485866,58012.5836722657,-56566.2998549556,-46079.6358374191,-46079.6311225855,-46079.6264077794,-56566.3273755325,58012.6294143625,-46079.6122635253,-56566.3480160985,58012.6522854246,-56566.3617765392,58012.6675328045,-56566.3755370306
NaN,NaN,NaN,NaN,NaN,NaN,NaN,NaN,NaN,NaN,NaN,NaN,NaN,NaN,NaN,NaN,NaN,NaN,NaN,NaN,NaN,NaN,NaN,NaN,NaN,NaN,NaN,NaN,NaN,NaN,NaN,NaN,NaN,NaN,NaN,NaN,36075.0701739439,36075.0704785793,36075.0707832192,36075.0710878635,36075.0713925121,36075.0716971652,36075.0720018227,36075.0723064846,-50756.5639861389,-4143.61711873691,-4143.61703134782,-4143.61694394758,-4143.61685653619,-4143.61676911363,-46080.2254077135,-46080.2206894477,-46080.2159712094,-46080.2112529987,-46080.2065348154,-56565.4812118773,-56565.4880904636,-46080.1923804307,-46080.1876623575,-4143.61589427467,-4143.61580672946,-50756.5821942242,-4143.61563160559,-50756.5843361422,-46080.1593544959,-4143.61536883621,-46080.1499187621,-46080.1452009364,-56565.5706345226,-46080.1357653676,-56565.5843920493,-56565.5912708323,-56565.5981496285,-56565.6050284377,-56565.61190726,-56565.6187860954,272587.371481213,272587.361172355,58011.8594270502,58011.867050641,58011.8746742326,58011.8822978251,-56565.6669383093,58011.8975450128,58011.9051686079,58011.9127922038,-46080.0555674713,-46080.0508501953,-56565.7082121446,58011.9432865964,58011.9509101967,58011.9585337979,58011.9661574,272587.196233401,272587.18592489,272587.175616399,272587.165307928,58012.0042754235,58012.0118990308,58012.019522639,58012.0271462481,58012.0347698581,58012.0423934688,58012.0500170806,-56565.8182779954,58012.0652643069,58012.0728879214,58012.0805115369,58012.0881351534,-56565.8526742555,-56565.8595535465,-56565.8664328504,-56565.8733121673,-56565.8801914971,58012.1338768713,272586.969450863,0.549272708936908,0.549262927319771,58012.1643713689,58012.1719949956,0.54923357830425,0.549223793911248,0.549214008824405,272586.886986928,0.549194436569522,0.549184649401577,58012.2253604093,58012.2329840436,272586.83544763,272586.825139832,-56565.9971420837,58012.2634785903,-56566.0109012214,58012.2787258693,58012.2863495103,-56566.0315400244,0.549076944787983,0.549067149300259,0.549057353119562,0.549047556245938,0.549037758679457,-332.565240895749,-332.564912406141,-332.564584251255,-332.564256431099,-332.563928945682,-332.563601795009,0.548969156318299,0.548959353210787,0.548949549410861,0.548939744918584,0.548929939734012,0.548920133857201,0.548910327288208,0.548900520027087,0.548890712073872,0.548880903428615,272586.536529742,58012.4693171826,272586.515915347,58012.4845645141,58012.4921881814,58012.4998118496,58012.5074355189,58012.5150591891,58012.5226828603,58012.5303065325,58012.5379302057,58012.5455538799,272586.41284459,272586.402537626,58012.5684249085,-56566.2860947434,-56566.292974843,-46079.6405522801,-4143.60566492131,-4143.60557608934,-4143.60548724633,-46079.6216930006,-56566.3342557084,-4143.60522065109,-46079.6075488287,-56566.3548963125,-46079.5981195178,-56566.3686567786,-46079.5886903166
NaN,NaN,NaN,NaN,NaN,NaN,NaN,NaN,NaN,NaN,NaN,NaN,NaN,NaN,NaN,NaN,NaN,NaN,NaN,NaN,NaN,NaN,NaN,NaN,NaN,NaN,NaN,NaN,NaN,NaN,NaN,NaN,NaN,NaN,NaN,NaN,NaN,NaN,NaN,NaN,NaN,NaN,NaN,NaN,36075.0726111509,-50756.565057291,-50756.566128432,-50756.567199562,-50756.568270681,-50756.5693417889,-4143.61668167992,-4143.61659423505,-4143.61650677904,-4143.61641931186,-4143.61633183354,-46080.2018166597,-46080.1970985315,-4143.61606933167,-4143.61598180874,-50756.580052262,-50756.5811232486,36075.0777911522,-50756.5832651887,36075.0784006478,-4143.61545643714,-50756.586478016,-4143.61528122413,-4143.61519360092,-46080.1404831383,-4143.61501832107,-46080.1310476244,-46080.1263299087,-46080.1216122205,-46080.1168945598,-46080.1121769265,-46080.1074593207,58011.8441798713,58011.8518034603,-56565.6394226801,-56565.6463015678,-56565.6531804685,-56565.6600593824,-46080.0744368499,-56565.6738172493,-56565.6806962023,-56565.6875751683,-4143.61352664441,-4143.61343879858,-46080.0461329469,-56565.7150911627,-56565.7219701939,-56565.7288492382,-56565.7357282954,58011.973781003,58011.9814046068,58011.9890282115,58011.9966518171,-56565.7701237765,-56565.7770029117,-56565.7838820598,-56565.790761221,-56565.7976403952,-56565.8045195822,-56565.8113987823,-46079.9706607085,-56565.8251572214,-56565.8320364604,-56565.8389157125,-56565.8457949775,-46079.9470770761,-46079.942360432,-46079.9376438153,-46079.9329272261,-46079.9282106643,-56565.8870708399,58012.1415004943,272586.9591428,272586.948834757,-56565.9145883407,-56565.9214677483,272586.917910751,272586.90760279,272586.897294849,58012.2024895121,272586.876679028,272586.866371148,-56565.969623963,-56565.9765034738,58012.2406076789,58012.2482313151,-46079.8480333126,-56566.0040216461,-46079.8386012044,-56566.0177808095,-56566.0246604106,-46079.8244532479,272586.752985813,272586.742678178,272586.732370562,272586.722062967,272586.711755393,0.549027960420163,0.549018161468111,0.549008361823356,0.548998561485957,0.548988760455953,0.548978958733376,272586.639602942,272586.629295531,272586.618988139,272586.608680768,272586.598373418,272586.588066088,272586.577758778,272586.567451489,272586.55714422,272586.546836971,58012.4616935183,-56566.1897746841,58012.4769408478,-56566.2035345396,-56566.2104144866,-56566.2172944463,-56566.2241744187,-56566.2310544039,-56566.2379344018,-56566.2448144125,-56566.2516944359,-56566.258574472,58012.5531775551,58012.5608012313,-56566.2792146566,-46079.6499820843,-46079.6452671685,-4143.60575374224,-50756.7042127477,-50756.7052824451,-50756.7063521312,-4143.60539839229,-46079.6169782493,-50756.7095611226,-4143.60513176393,-46079.6028341596,-4143.60495395653,-46079.5934049035,-4143.60477610499
NaN,NaN,NaN,NaN,NaN,NaN,NaN,NaN,NaN,NaN,NaN,NaN,NaN,NaN,NaN,NaN,NaN,NaN,NaN,NaN,NaN,NaN,NaN,NaN,NaN,NaN,NaN,NaN,NaN,NaN,NaN,NaN,NaN,NaN,NaN,NaN,NaN,NaN,NaN,NaN,NaN,NaN,NaN,NaN,NaN,36075.0729158216,36075.0732204967,36075.0735251762,36075.0738298602,36075.0741345485,-50756.5704128859,-50756.5714839718,-50756.5725550467,-50756.5736261105,-50756.5746971634,-4143.61624434406,-4143.61615684344,-50756.5779102556,-50756.5789812643,36075.0771816742,36075.077486411,NaN,36075.0780958978,NaN,-50756.5854070846,36075.079010161,-50756.5875489363,-50756.5886198456,-4143.61510596656,-50756.5907616311,-4143.61493066444,-4143.61484299667,-4143.61475531777,-4143.61466762773,-4143.61457992656,-4143.61449221425,-56565.6256649439,-56565.6325438055,-46080.0933066683,-46080.0885891725,-46080.0838717042,-46080.0791542633,-4143.61387791648,-46080.069719464,-46080.0650021056,-46080.0602847747,-50756.6089650218,-50756.6100357099,-4143.61335094163,-46080.0414157259,-46080.0366985323,-46080.0319813663,-46080.0272642277,-56565.7426073656,-56565.7494864489,-56565.7563655451,-56565.7632446543,-46080.0036789472,-46079.9989619735,-46079.9942450273,-46079.9895281086,-46079.9848112174,-46079.9800943536,-46079.9753775173,-4143.61194371882,-46079.9659439271,-46079.9612271732,-46079.9565104467,-46079.9517937477,-4143.6115033785,-4143.61141527713,-4143.61132716466,-4143.61123904109,-4143.61115090642,-46079.9234941299,-56565.8939501957,58012.1491241182,58012.1567477432,-46079.904628267,-46079.8999118698,58012.1796186233,58012.187242252,58012.1948658816,-56565.9489855078,58012.2101131436,58012.217736776,-46079.8668978582,-46079.8621816807,-56565.9833829976,-56565.9902625342,-4143.60965091996,-46079.8433172448,-4143.60947424033,-46079.8338851915,-46079.829169206,-4143.6092091378,58012.3015967951,58012.3092204389,58012.3168440836,58012.3244677294,58012.3320913761,272586.701447839,272586.691140305,272586.680832792,272586.670525299,272586.660217826,272586.649910374,58012.3854569298,58012.3930805843,58012.4007042397,58012.4083278961,58012.4159515534,58012.4235752118,58012.4311988711,58012.4388225314,58012.4464461927,58012.454069855,-56566.1828947754,-46079.7159937847,-56566.1966546055,-46079.7065632127,-46079.7018479678,-46079.6971327504,-46079.6924175604,-46079.6877023978,-46079.6829872626,-46079.6782721549,-46079.6735570745,-46079.6688420217,-56566.2654545208,-56566.2723345824,-46079.6546970275,-4143.60593135098,-4143.60584255213,-50756.7031430392,36075.1125604365,36075.1128656821,36075.113170932,-50756.7074218062,-4143.60530952721,36075.1140867081,-50756.7106307639,-4143.60504286575,-50756.7127700131,-4143.60486503627,-50756.7149092175
NaN,NaN,NaN,NaN,NaN,NaN,NaN,NaN,NaN,NaN,NaN,NaN,NaN,NaN,NaN,NaN,NaN,NaN,NaN,NaN,NaN,NaN,NaN,NaN,NaN,NaN,NaN,NaN,NaN,NaN,NaN,NaN,NaN,NaN,NaN,NaN,NaN,NaN,NaN,NaN,NaN,NaN,NaN,NaN,NaN,NaN,NaN,NaN,NaN,NaN,36075.0744392413,36075.0747439384,36075.07504864,36075.0753533459,36075.0756580563,-50756.5757682051,-50756.5768392359,36075.0765722139,36075.0768769418,NaN,NaN,NaN,NaN,NaN,36075.0787054022,NaN,36075.0793149242,36075.0796196918,-50756.5896907439,36075.0802292402,-50756.5918325072,-50756.5929033723,-50756.5939742264,-50756.5950450694,-50756.5961159013,-50756.5971867222,-46080.1027417424,-46080.0980241916,-4143.61422901055,-4143.61414125373,-4143.61405348577,-4143.61396570669,-50756.6046821587,-4143.61379011515,-4143.61370230269,-4143.61361447911,36075.0854111122,36075.0857159678,-50756.6111063869,-4143.61326307357,-4143.61317519438,-4143.61308730408,-4143.61299940266,-46080.0225471166,-46080.017830033,-46080.0131129769,-46080.0083959483,-4143.61255972883,-4143.61247176073,-4143.61238378152,-4143.61229579119,-4143.61220778976,-4143.61211977722,-4143.61203175358,-50756.6282357118,-4143.61185567297,-4143.611767616,-4143.61167954794,-4143.61159146877,-50756.6335880436,-50756.6346584766,-50756.6357288986,-50756.6367993094,-50756.6378697091,-4143.61106276065,-46079.918777623,-56565.9008295645,-56565.9077089461,-4143.61071006664,-50756.6442918743,-56565.9283471688,-56565.9352266022,-56565.9421060486,-46079.8810465557,-56565.95586498,-56565.962744465,-4143.61000414623,-4143.60991585629,-46079.8574655305,-46079.8527494078,-50756.6560648045,-4143.60956258569,-50756.6582051926,-4143.6093858839,-4143.60929751639,-50756.6614156912,-56566.0384196512,-56566.0452992907,-56566.0521789431,-56566.0590586084,-56566.0659382865,58012.3397150237,58012.3473386723,58012.3549623219,58012.3625859724,58012.3702096239,58012.3778332764,-56566.1140963924,-56566.1209761731,-56566.1278559666,-56566.1347357729,-56566.1416155921,-56566.148495424,-56566.1553752687,-56566.1622551262,-56566.1691349965,-56566.1760148796,-46079.7207091118,-4143.60717337499,-46079.711278485,-4143.60699607559,-4143.60690740931,-4143.60681873198,-4143.60673004359,-4143.60664134416,-4143.60655263368,-4143.60646391214,-4143.60637517956,-4143.60628643594,-46079.6641269962,-46079.6594119981,-4143.60602013878,-50756.7010035885,-50756.7020733194,36075.1122551953,NaN,NaN,NaN,36075.1134761863,-50756.70849147,NaN,36075.1143919755,-50756.7117003941,36075.1150025234,-50756.7138396209,36075.1156130888
NaN,NaN,NaN,NaN,NaN,NaN,NaN,NaN,NaN,NaN,NaN,NaN,NaN,NaN,NaN,NaN,NaN,NaN,NaN,NaN,NaN,NaN,NaN,NaN,NaN,NaN,NaN,NaN,NaN,NaN,NaN,NaN,NaN,NaN,NaN,NaN,NaN,NaN,NaN,NaN,NaN,NaN,NaN,NaN,NaN,NaN,NaN,NaN,NaN,NaN,NaN,NaN,NaN,NaN,NaN,36075.0759627711,36075.0762674903,NaN,NaN,NaN,NaN,NaN,NaN,NaN,NaN,NaN,NaN,NaN,36075.0799244638,NaN,36075.080534021,36075.0808388063,36075.0811435959,36075.0814483899,36075.0817531883,36075.0820579911,-4143.61440449082,-4143.61431675625,-50756.6003991185,-50756.6014698951,-50756.6025406607,-50756.6036114152,36075.0841917339,-50756.6057528911,-50756.6068236124,-50756.6078943226,NaN,NaN,36075.0860208278,-50756.6121770528,-50756.6132477077,-50756.6143183515,-50756.6153889842,-4143.61291149012,-4143.61282356647,-4143.6127356317,-4143.61264768582,-50756.6207419815,-50756.6218125477,-50756.6228831028,-50756.6239536468,-50756.6250241797,-50756.6260947015,-50756.6271652122,36075.0908991847,-50756.6293062004,-50756.6303766778,-50756.6314471442,-50756.6325175994,36075.0924239018,36075.0927288584,36075.0930338194,36075.0933387848,36075.0936437545,-50756.6389400978,-4143.61097460379,-46079.9140611435,-46079.9093446915,-50756.6432215413,36075.0954736652,-46079.8951955001,-46079.8904791579,-46079.885762843,-4143.61026894955,-46079.8763302958,-46079.8716140633,-50756.6517838947,-50756.6528541388,-4143.60982755526,-4143.60973924315,36075.0988289115,-50756.6571350041,36075.0994390132,-50756.6592753699,-50756.6603455362,36075.1003541988,-46079.8197373173,-46079.8150214141,-46079.8103055384,-46079.8055896901,-46079.8008738692,-56566.0728179774,-56566.0796976812,-56566.0865773978,-56566.0934571272,-56566.1003368695,-56566.1072166245,-46079.7678638915,-46079.7631482901,-46079.7584327161,-46079.7537171696,-46079.7490016505,-46079.7442861588,-46079.7395706946,-46079.7348552577,-46079.7301398484,-46079.7254244664,-4143.6072620081,-50756.6860261816,-4143.60708473082,-50756.6881659453,-50756.6892358103,-50756.6903056642,-50756.691375507,-50756.6924453385,-50756.6935151589,-50756.6945849681,-50756.6956547662,-50756.696724553,-4143.60619768126,-4143.60610891554,-50756.6999338464,36075.111644726,36075.1119499584,NaN,NaN,NaN,NaN,NaN,36075.113781445,NaN,NaN,36075.1146972473,NaN,36075.1153078039,NaN
NaN,NaN,NaN,NaN,NaN,NaN,NaN,NaN,NaN,NaN,NaN,NaN,NaN,NaN,NaN,NaN,NaN,NaN,NaN,NaN,NaN,NaN,NaN,NaN,NaN,NaN,NaN,NaN,NaN,NaN,NaN,NaN,NaN,NaN,NaN,NaN,NaN,NaN,NaN,NaN,NaN,NaN,NaN,NaN,NaN,NaN,NaN,NaN,NaN,NaN,NaN,NaN,NaN,NaN,NaN,NaN,NaN,NaN,NaN,NaN,NaN,NaN,NaN,NaN,NaN,NaN,NaN,NaN,NaN,NaN,NaN,NaN,NaN,NaN,NaN,NaN,-50756.598257532,-50756.5993283308,36075.0829724259,36075.0832772463,36075.0835820711,36075.0838869003,NaN,36075.0844965719,36075.0848014143,36075.0851062611,NaN,NaN,NaN,36075.0863256921,36075.0866305609,36075.0869354341,36075.0872403116,-50756.6164596058,-50756.6175302164,-50756.6186008158,-50756.6196714042,36075.0887647652,36075.0890696691,36075.0893745774,36075.0896794901,36075.0899844072,36075.0902893286,36075.0905942545,NaN,36075.0912041194,36075.0915090584,36075.0918140018,36075.0921189496,NaN,NaN,NaN,NaN,NaN,36075.0939487287,-50756.6400104753,-4143.61088643583,-4143.61079825678,36075.0951686691,NaN,-4143.61053365307,-4143.61044542965,-4143.61035719515,-50756.6485730956,-4143.61018069286,-4143.61009242509,36075.0976087605,36075.0979137917,-50756.6539243718,-50756.6549945937,NaN,36075.0991339602,NaN,36075.0997440707,36075.1000491325,NaN,-4143.60912074814,-4143.60903234739,-4143.60894393558,-4143.60885551269,-4143.60876707873,-46079.7961580758,-46079.7914423098,-46079.7867265713,-46079.7820108602,-46079.7772951765,-46079.7725795203,-4143.60814773102,-4143.60805920851,-4143.60797067493,-4143.60788213029,-4143.60779357459,-4143.60770500782,-4143.60761643,-4143.60752784111,-4143.60743924117,-4143.60735063016,-50756.684956283,36075.1073719303,-50756.687096069,36075.1079822772,36075.1082874572,36075.1085926416,36075.1088978304,36075.1092030235,36075.109508221,36075.1098134229,36075.1101186291,36075.1104238398,-50756.6977943287,-50756.6988640931,36075.1113394979,NaN,NaN,NaN,NaN,NaN,NaN,NaN,NaN,NaN,NaN,NaN,NaN,NaN,NaN
NaN,NaN,NaN,NaN,NaN,NaN,NaN,NaN,NaN,NaN,NaN,NaN,NaN,NaN,NaN,NaN,NaN,NaN,NaN,NaN,NaN,NaN,NaN,NaN,NaN,NaN,NaN,NaN,NaN,NaN,NaN,NaN,NaN,NaN,NaN,NaN,NaN,NaN,NaN,NaN,NaN,NaN,NaN,NaN,NaN,NaN,NaN,NaN,NaN,NaN,NaN,NaN,NaN,NaN,NaN,NaN,NaN,NaN,NaN,NaN,NaN,NaN,NaN,NaN,NaN,NaN,NaN,NaN,NaN,NaN,NaN,NaN,NaN,NaN,NaN,NaN,36075.0823627983,36075.0826676099,NaN,NaN,NaN,NaN,NaN,NaN,NaN,NaN,NaN,NaN,NaN,NaN,NaN,NaN,NaN,36075.0875451935,36075.0878500799,36075.0881549706,36075.0884598657,NaN,NaN,NaN,NaN,NaN,NaN,NaN,NaN,NaN,NaN,NaN,NaN,NaN,NaN,NaN,NaN,NaN,NaN,36075.0942537072,-50756.6410808417,-50756.6421511971,NaN,NaN,-50756.6453621963,-50756.6464325072,-50756.6475028069,36075.0966936934,-50756.6496433731,-50756.6507136394,NaN,NaN,36075.0982188272,36075.0985238672,NaN,NaN,NaN,NaN,NaN,NaN,-50756.6624858352,-50756.663555968,-50756.6646260897,-50756.6656962002,-50756.6667662996,-4143.60867863369,-4143.60859017759,-4143.60850171041,-4143.60841323216,-4143.60832474285,-4143.60823624247,-50756.6742566831,-50756.6753266933,-50756.6763966924,-50756.6774666803,-50756.678536657,-50756.6796066226,-50756.680676577,-50756.6817465202,-50756.6828164523,-50756.6838863732,36075.1070667634,NaN,36075.1076771015,NaN,NaN,NaN,NaN,NaN,NaN,NaN,NaN,NaN,36075.1107290548,36075.1110342741,NaN,NaN,NaN,NaN,NaN,NaN,NaN,NaN,NaN,NaN,NaN,NaN,NaN,NaN,NaN
NaN,NaN,NaN,NaN,NaN,NaN,NaN,NaN,NaN,NaN,NaN,NaN,NaN,NaN,NaN,NaN,NaN,NaN,NaN,NaN,NaN,NaN,NaN,NaN,NaN,NaN,NaN,NaN,NaN,NaN,NaN,NaN,NaN,NaN,NaN,NaN,NaN,NaN,NaN,NaN,NaN,NaN,NaN,NaN,NaN,NaN,NaN,NaN,NaN,NaN,NaN,NaN,NaN,NaN,NaN,NaN,NaN,NaN,NaN,NaN,NaN,NaN,NaN,NaN,NaN,NaN,NaN,NaN,NaN,NaN,NaN,NaN,NaN,NaN,NaN,NaN,NaN,NaN,NaN,NaN,NaN,NaN,NaN,NaN,NaN,NaN,NaN,NaN,NaN,NaN,NaN,NaN,NaN,NaN,NaN,NaN,NaN,NaN,NaN,NaN,NaN,NaN,NaN,NaN,NaN,NaN,NaN,NaN,NaN,NaN,NaN,NaN,NaN,NaN,NaN,NaN,36075.0945586901,36075.0948636774,NaN,NaN,36075.0957786657,36075.0960836705,36075.0963886797,NaN,36075.0969987114,36075.0973037338,NaN,NaN,NaN,NaN,NaN,NaN,NaN,NaN,NaN,NaN,36075.1006592694,36075.1009643443,36075.1012694237,36075.1015745074,36075.1018795955,-50756.6678363878,-50756.6689064649,-50756.6699765309,-50756.6710465857,-50756.6721166293,-50756.6731866618,36075.104015335,36075.1043204581,36075.1046255856,36075.1049307175,36075.1052358538,36075.1055409945,36075.1058461395,36075.1061512889,36075.1064564427,36075.1067616008,NaN,NaN,NaN,NaN,NaN,NaN,NaN,NaN,NaN,NaN,NaN,NaN,NaN,NaN,NaN,NaN,NaN,NaN,NaN,NaN,NaN,NaN,NaN,NaN,NaN,NaN,NaN,NaN,NaN
NaN,NaN,NaN,NaN,NaN,NaN,NaN,NaN,NaN,NaN,NaN,NaN,NaN,NaN,NaN,NaN,NaN,NaN,NaN,NaN,NaN,NaN,NaN,NaN,NaN,NaN,NaN,NaN,NaN,NaN,NaN,NaN,NaN,NaN,NaN,NaN,NaN,NaN,NaN,NaN,NaN,NaN,NaN,NaN,NaN,NaN,NaN,NaN,NaN,NaN,NaN,NaN,NaN,NaN,NaN,NaN,NaN,NaN,NaN,NaN,NaN,NaN,NaN,NaN,NaN,NaN,NaN,NaN,NaN,NaN,NaN,NaN,NaN,NaN,NaN,NaN,NaN,NaN,NaN,NaN,NaN,NaN,NaN,NaN,NaN,NaN,NaN,NaN,NaN,NaN,NaN,NaN,NaN,NaN,NaN,NaN,NaN,NaN,NaN,NaN,NaN,NaN,NaN,NaN,NaN,NaN,NaN,NaN,NaN,NaN,NaN,NaN,NaN,NaN,NaN,NaN,NaN,NaN,NaN,NaN,NaN,NaN,NaN,NaN,NaN,NaN,NaN,NaN,NaN,NaN,NaN,NaN,NaN,NaN,NaN,NaN,NaN,NaN,NaN,NaN,NaN,36075.102184688,36075.1024897849,36075.1027948862,36075.1030999918,36075.1034051018,36075.1037102162,NaN,NaN,NaN,NaN,NaN,NaN,NaN,NaN,NaN,NaN,NaN,NaN,NaN,NaN,NaN,NaN,NaN,NaN,NaN,NaN,NaN,NaN,NaN,NaN,NaN,NaN,NaN,NaN,NaN,NaN,NaN,NaN,NaN,NaN,NaN,NaN,NaN,NaN,NaN
